<?xml version="1.0"?>
<opencv_storage>
<hog type_id="opencv-object-detector-hog">
  <winSize>
    64 128</winSize>
  <blockSize>
    16 16</blockSize>
  <blockStride>
    8 8</blockStride>
  <cellSize>
    8 8</cellSize>
  <nbins>9</nbins>
  <derivAperture>1</derivAperture>
  <winSigma>4.</winSigma>
  <histogramNormType>0</histogramNormType>
  <L2HysThreshold>2.0000000000000001e-01</L2HysThreshold>
  <gammaCorrection>1</gammaCorrection>
  <nlevels>64</nlevels>
  <signedGradient>0</signedGradient>
  <SVMDetector>
    1.15271183e-02 -1.79254543e-03 1.71011663e-06 -3.13936081e-03
    -2.91556353e-03 -8.05587450e-04 -1.31246095e-04 -2.62648711e-04
    -1.21428713e-03 1.49273928e-02 1.02601596e-03 -2.07330799e-03
    -1.64422183e-03 -3.87742277e-03 -3.23672220e-03 -2.75377324e-03
    -3.70420562e-03 1.50707958e-03 2.18241755e-03 -1.64471325e-02
    -4.75415727e-03 -2.71957135e-03 -1.91671972e-03 -1.51188916e-03
    -1.87811407e-03 -5.96437324e-03 4.22810949e-03 2.18241755e-03
    -1.82512812e-02 -6.19016821e-03 -2.00393377e-03 -2.08009663e-03
    -3.59509140e-03 -3.61500424e-03 -1.08164167e-02 3.41614970e-04
    1.78147145e-02 1.77165966e-05 -2.89212703e-03 -1.36747130e-03
    -2.92964187e-03 -1.83886127e-03 -4.24788101e-03 -1.11460302e-03
    1.99098582e-03 1.57153700e-02 -1.55972864e-03 -3.10058519e-03
    -2.89204600e-03 -9.01832245e-04 2.06831866e-03 1.46279723e-04
    1.12228263e-02 8.28001928e-03 -9.15721408e-04 -1.53617002e-02
    -3.69707472e-03 -7.47682352e-04 -1.64583023e-03 -2.51291669e-03
    -4.98751551e-03 -1.17364461e-02 -6.08290080e-03 -9.15721408e-04
    -1.49833569e-02 -3.55659751e-03 -8.64419097e-04 3.17156693e-04
    3.34006298e-04 -1.55429239e-03 1.43126817e-03 -6.28588395e-03
    1.62204355e-02 -2.23775557e-03 -3.90097057e-03 -2.64176843e-03
    -4.23254073e-03 -8.41688772e-04 2.60037887e-05 4.11376730e-03
    8.55867378e-03 1.54825766e-02 1.08886650e-03 -1.66144769e-03
    -3.24366079e-03 -3.77432862e-03 -5.31469297e-04 -1.09645957e-03
    2.88972096e-03 1.33871241e-02 -6.10453449e-03 -9.67048574e-03
    -4.72328858e-03 9.07663925e-05 1.94256194e-04 3.09107054e-05
    -1.31125131e-03 -4.26074350e-03 -9.30604432e-03 -6.10453449e-03
    1.86376472e-03 -9.81444144e-04 -8.39384797e-04 4.15449867e-05
    5.98328712e-04 -2.21560942e-03 -4.08296753e-03 -7.37044076e-03
    1.49821704e-02 3.70356743e-03 1.59666722e-03 -3.13402642e-03
    -2.99211330e-04 -3.30277362e-05 -3.50055110e-04 2.42787367e-03
    1.40489414e-02 1.76914185e-02 9.25438944e-03 4.59053647e-03
    2.71674740e-04 8.68110859e-04 -1.53737701e-03 -3.44318547e-03
    -1.42611878e-03 1.10472944e-02 -9.87775158e-03 4.88842279e-03
    3.80804704e-04 -1.98663468e-03 -1.25727640e-03 -1.16207311e-03
    -1.60119857e-03 -1.42926304e-03 -1.12110907e-02 -9.87775158e-03
    2.94573791e-03 1.97020898e-04 -1.52804994e-03 -4.01759800e-03
    -4.02029650e-03 -4.16336628e-03 -6.49842899e-04 -8.99775699e-03
    2.24077757e-02 5.58788050e-03 7.66134181e-04 -2.87585380e-03
    -1.37588941e-03 -3.29255802e-03 -2.70806742e-03 -1.70114450e-03
    1.31866224e-02 1.33087076e-02 -1.41681335e-03 -3.36085726e-03
    -5.97094838e-03 -1.49762002e-03 6.09586015e-03 3.33250524e-03
    7.67682260e-03 1.31734060e-02 -2.35526962e-03 -1.16906585e-02
    -6.70547411e-03 -3.45785706e-03 -4.06786241e-03 -2.22092750e-03
    -3.24927061e-03 -4.08017338e-04 -2.58493167e-03 -4.16452618e-04
    -2.62616072e-02 -1.41700711e-02 -8.15822091e-03 -6.14317972e-03
    -1.52977230e-03 -3.17908498e-03 -6.32898882e-03 -1.45506812e-03
    1.88882928e-02 -2.49399198e-03 -2.86334846e-03 -4.59467340e-03
    -5.77943260e-03 4.38140752e-03 -1.61086849e-03 2.47508474e-03
    1.52595816e-02 2.06959210e-02 8.58908612e-03 3.50620248e-03
    2.03395239e-03 -4.67349403e-03 -1.05892047e-02 -9.36357677e-03
    -4.89942217e-03 1.75677333e-02 1.23753422e-03 -2.10987963e-02
    -1.06288847e-02 -9.45865456e-03 -8.57501943e-03 -5.51783713e-03
    -1.12009002e-02 -9.84213594e-03 2.26294040e-03 -1.66858395e-03
    -3.04882065e-03 -5.43514173e-03 -8.02457985e-03 -8.04678071e-03
    -9.33448505e-03 -1.19551346e-02 -1.22898873e-02 -2.59858469e-04
    2.25735996e-02 1.08252382e-02 3.39402189e-03 1.84483815e-03
    -4.61842259e-03 -1.09663876e-02 -1.12754256e-02 -5.05380193e-03
    1.42103611e-02 2.02051848e-02 -1.05716381e-03 -2.39795563e-03
    -4.65211459e-03 -1.03764748e-02 -1.39130885e-02 -1.90474987e-02
    -1.27906660e-02 1.90327205e-02 1.26201147e-03 -5.15756219e-05
    -2.58432841e-03 -3.62447440e-03 -5.94300358e-03 -7.46895559e-03
    -7.63242133e-03 -9.49413795e-03 -1.02563272e-03 -1.69645937e-04
    -1.98252574e-02 -4.98777907e-03 -4.37971903e-03 -7.43368361e-03
    -8.26992001e-03 -1.23910597e-02 -1.74318999e-02 1.12693454e-03
    2.11601648e-02 2.07082229e-03 -1.49012648e-03 -4.61050821e-03
    -5.96449664e-03 -1.19163347e-02 -1.61639545e-02 -1.38186235e-02
    1.76150724e-02 1.59774162e-02 5.89811429e-03 -4.57551418e-04
    -8.09618086e-03 -9.78282001e-03 -1.26388818e-02 -1.37334978e-02
    -9.31095798e-03 1.60243493e-02 -3.46796075e-03 -1.11575937e-02
    -1.52986485e-03 -3.74633842e-03 -3.65198241e-03 -2.17525940e-03
    -5.01682889e-03 -1.48139913e-02 8.78974563e-04 -6.96753524e-03
    -4.75621317e-03 6.77807024e-04 -2.65800068e-03 -1.93010259e-03
    1.68649026e-03 2.65574176e-03 -8.67285114e-03 8.78974563e-04
    1.55646615e-02 4.68968228e-03 -4.62949771e-04 -5.09890029e-03
    -1.08244186e-02 -1.08572850e-02 -1.08477790e-02 1.32376538e-03
    1.70821082e-02 1.61644015e-02 -1.59778667e-03 -8.97055306e-03
    -6.01102319e-03 -1.20630581e-02 -7.23373052e-03 -8.87366105e-03
    3.36731458e-03 1.54483942e-02 -8.42774101e-03 -4.16644290e-03
    3.56376986e-04 1.60891900e-03 -1.66263338e-03 -1.14085013e-03
    -2.34341645e-03 -1.29838154e-04 -8.96903162e-04 -8.62372387e-03
    -7.83418678e-03 -3.66068864e-03 1.42730551e-03 -3.69043183e-03
    -4.24459530e-03 -8.73179082e-03 -4.61689150e-03 -1.84242672e-03
    1.85563900e-02 1.13884173e-02 -2.77681602e-03 -5.02424641e-03
    -7.51679204e-03 -4.18520300e-03 -3.97521397e-03 -1.50058174e-03
    1.54928463e-02 2.23344844e-02 1.74431577e-02 9.07784561e-04
    -1.13005396e-02 -7.92070013e-03 -9.34598874e-03 -6.95074070e-03
    -9.00845602e-03 1.41944215e-02 -5.22104511e-03 -1.93960231e-03
    -1.19694101e-03 -8.63588415e-04 -2.83784489e-03 -3.10187321e-03
    -5.86533593e-03 -8.41333065e-03 -2.44319229e-03 -7.21201068e-04
    2.71213963e-03 -2.44145025e-03 -7.33724562e-03 -9.11568664e-03
    -9.46665835e-03 -7.01199146e-03 -2.02111658e-02 -2.54300563e-03
    2.55265012e-02 1.91771798e-02 3.38057382e-03 -8.77521746e-03
    -8.70128721e-03 -1.05036609e-02 -1.01367813e-02 -1.28047355e-02
    1.48822432e-02 2.49342658e-02 1.00010950e-02 -5.77242055e-04
    -4.31751786e-03 -1.33944210e-02 -1.14937946e-02 -1.05745196e-02
    -1.14898318e-02 1.34725561e-02 6.89582108e-03 5.99427335e-03
    -1.40223128e-03 -8.39047413e-03 -8.62850994e-03 -8.46799370e-03
    -7.04354746e-03 -1.57004427e-02 -2.75503192e-03 2.50127190e-03
    2.58931052e-03 -1.42730947e-03 -4.59653465e-03 -6.41956041e-03
    -5.63854119e-03 -1.22763291e-02 -1.93450600e-02 -2.90792203e-03
    2.63912920e-02 6.75240485e-03 -1.55982003e-03 -4.08753287e-03
    -1.14061022e-02 -1.23578859e-02 -1.11568244e-02 -1.12004736e-02
    1.63802058e-02 3.00845094e-02 8.17887578e-03 -3.62444087e-03
    -7.23588793e-03 -9.93862655e-03 -1.17614921e-02 -8.52831453e-03
    -5.32584148e-04 2.13392563e-02 4.67914389e-03 1.96198584e-03
    5.55825362e-04 -3.54348705e-03 -7.37260235e-03 -9.83226858e-03
    -1.40868677e-02 -1.26124276e-02 -2.31953477e-03 -2.11074506e-03
    6.90391613e-03 -1.00777019e-03 -7.30639556e-03 -9.29091312e-03
    -1.17094405e-02 -8.48791096e-03 -1.50546832e-02 -2.32085213e-03
    2.74760444e-02 3.47291958e-03 -5.32566058e-03 -8.42889771e-03
    -1.06587503e-02 -9.65259410e-03 -6.07766677e-03 1.98914902e-03
    2.12829877e-02 2.68448815e-02 2.04369263e-03 -4.42177663e-03
    -1.01251462e-02 -1.14854136e-02 -8.95074196e-03 -6.02293340e-03
    3.71600967e-03 2.68623382e-02 -6.30446896e-03 1.11274619e-03
    -3.82580422e-03 -9.29738209e-03 -9.15006362e-03 -6.18872326e-03
    -3.72758252e-03 -1.99041050e-02 -3.64569481e-03 -1.64582871e-03
    -1.42282224e-03 -3.89241427e-03 -8.63710698e-03 -9.96653736e-03
    -6.82339119e-03 -4.02322784e-03 -2.39982661e-02 -7.54359353e-04
    2.36522760e-02 -3.81911319e-04 -7.58124003e-03 -1.40211703e-02
    -1.32001266e-02 -6.99026929e-03 -4.95869201e-03 4.47700219e-03
    2.79393774e-02 2.23629996e-02 4.24834347e-04 -1.16611756e-02
    -1.78159960e-02 -1.74605101e-02 -9.96172521e-03 -4.83971741e-03
    4.72849747e-03 2.57203355e-02 7.84332957e-03 -2.10966240e-03
    -6.91090478e-03 -9.08632483e-03 -1.16244433e-02 -8.18105601e-03
    -9.60368756e-03 -2.46282779e-02 1.07100769e-03 8.04873370e-03
    -3.40924924e-03 -9.83499084e-03 -1.47443814e-02 -1.94022860e-02
    -1.15138590e-02 -1.06847556e-02 -1.87446661e-02 6.81259044e-05
    2.92487089e-02 -2.09265505e-03 -1.01309381e-02 -1.23372506e-02
    -1.39663517e-02 -1.38965826e-02 -8.80738441e-03 -5.11004450e-03
    2.33038981e-02 2.32633743e-02 -3.34753306e-03 -1.06454045e-02
    -1.17591014e-02 -1.26538547e-02 -1.29829729e-02 -1.26570044e-02
    -1.07454602e-02 1.53329195e-02 1.14846155e-02 -1.01381885e-02
    -1.16043091e-02 -9.86705162e-03 -1.56258140e-02 -1.33527583e-02
    -9.87087097e-03 -1.23086171e-02 3.38057778e-03 8.58315453e-03
    -1.50773376e-02 -1.95262153e-02 -1.26044285e-02 -9.13696457e-03
    -1.13354530e-02 -1.14626810e-02 -8.04356113e-03 3.92115535e-03
    8.48705508e-03 -1.51312258e-02 -1.30605251e-02 -4.92563704e-03
    -2.59473058e-03 -3.62119987e-03 -2.59747752e-03 -1.58277329e-03
    1.18621746e-02 7.94519112e-03 -1.92653928e-02 -9.78191011e-03
    -2.74016173e-03 -3.28480906e-04 -1.98900700e-03 -2.38863472e-03
    -4.96721268e-03 7.97727611e-03 1.96004193e-02 -1.32044284e-02
    -2.00923868e-02 -1.75804719e-02 -1.29494537e-02 -7.48606911e-03
    -1.23990932e-03 6.03533408e-04 1.25721702e-02 9.15969908e-03
    -2.16602068e-02 -1.27761671e-02 -4.36079875e-03 -1.60094781e-03
    -3.84440355e-04 -5.02161216e-04 -2.39761337e-03 1.61537454e-02
    5.44547290e-03 -2.12791990e-02 -8.95572081e-03 -2.18836567e-03
    -4.00783785e-04 -1.29019644e-03 -3.06601822e-03 -7.06787780e-03
    2.47829407e-03 5.44547290e-03 -1.83510650e-02 -6.07789308e-03
    -2.14806548e-03 1.71913998e-03 1.95258751e-03 6.87190215e-04
    9.65705782e-04 4.61496739e-03 5.03255101e-03 -2.03747023e-02
    -1.26274442e-02 -2.14459863e-03 1.13339175e-03 7.68545608e-04
    -1.73762965e-03 -3.70416674e-03 1.18271913e-02 5.45892864e-03
    -1.64972320e-02 -9.02679749e-03 -2.64037424e-03 2.50276504e-03
    2.94570765e-03 3.04829475e-04 -1.67322543e-03 1.17586013e-02
    -3.89662129e-03 -1.75789688e-02 -7.69576104e-03 -2.58188229e-03
    3.44212912e-03 3.47038568e-03 2.28445372e-03 -1.43224385e-03
    -4.81080124e-03 -4.13838308e-03 -5.27407508e-03 -5.59533667e-03
    -7.94734049e-04 5.81415230e-03 5.55764232e-03 2.42200191e-03
    -3.97284562e-03 -4.28011874e-03 2.83840252e-03 -1.52820274e-02
    -6.32268889e-03 -4.94129164e-03 2.30426644e-03 3.42479791e-03
    1.73763640e-03 -7.90672144e-04 9.69511829e-03 2.17400049e-03
    -7.13330135e-03 -7.12559139e-03 -2.11964431e-03 5.68810059e-03
    8.55490472e-03 6.15007104e-03 -4.52579174e-04 1.86214002e-03
    -5.53772924e-03 1.49052520e-03 -2.38631992e-03 5.88590687e-04
    3.57216387e-03 2.51804665e-03 6.97782234e-05 -3.91166657e-03
    -7.09510548e-03 -5.76362852e-03 -3.43922060e-03 -6.53088838e-03
    -2.00496311e-03 -2.25724233e-03 -5.25166700e-03 -3.75557970e-03
    3.59539548e-03 -5.18648012e-04 5.90238208e-03 -2.85510812e-03
    -6.16654754e-03 -1.68370942e-04 5.30057587e-03 7.30695855e-03
    9.12819337e-03 -2.10678484e-03 -3.38642480e-04 1.26109971e-02
    -6.23289309e-03 -9.26856603e-03 -1.01120593e-02 -9.27103497e-03
    -9.94364545e-03 -2.35531456e-03 2.71666609e-03 1.15245283e-02
    7.06019951e-03 -1.23408651e-02 -1.36406412e-02 -7.26595754e-03
    -2.32943264e-03 -4.83048061e-04 3.70823615e-03 1.92900542e-02
    1.01158442e-02 -5.99195366e-04 -2.32667923e-02 -2.22950093e-02
    -1.59777235e-02 -1.04399398e-02 -9.32740222e-04 1.54894905e-03
    1.28092272e-02 1.11611867e-02 1.14619797e-02 -7.23353261e-03
    -1.73634663e-02 -2.27505006e-02 -1.31021077e-02 -7.73055479e-04
    6.15882687e-03 2.66072936e-02 2.82960217e-02 3.17850406e-03
    -1.41627705e-02 -2.58418396e-02 -2.83641368e-02 -2.35868227e-02
    -8.24759714e-03 7.07251392e-03 3.17280665e-02 3.04743890e-02
    9.11377836e-03 -5.66444825e-03 -9.66084283e-03 -8.59589223e-03
    -7.72841787e-03 -5.48933959e-03 -5.87989530e-03 9.10452008e-03
    2.19863299e-02 5.16899221e-04 5.84835839e-03 -3.15380213e-03
    -2.98766838e-03 -3.40418890e-03 -6.43948745e-03 6.17208891e-03
    3.20912129e-03 3.37015814e-03 2.20131804e-03 -2.94327037e-03
    -1.44414539e-02 -1.64800435e-02 -1.77935716e-02 -1.52738085e-02
    1.11481070e-03 2.31820904e-02 2.72496771e-02 -1.31404521e-02
    -8.05876590e-03 -8.23293161e-03 -5.08903898e-03 -1.11339008e-02
    -1.79414544e-02 2.62590125e-03 -8.75971804e-04 1.79965107e-03
    4.22747759e-03 8.61239270e-04 -5.19080786e-04 5.69712778e-04
    -8.26597679e-04 -3.46841873e-03 7.46344822e-03 1.68224820e-03
    -3.90492473e-03 8.80399812e-03 9.44025442e-03 3.60972458e-03
    8.38143635e-04 5.65708615e-04 -2.83306185e-03 -5.51398098e-03
    -7.03189010e-03 2.78700865e-03 -1.27182379e-02 -9.29687452e-03
    -8.62206146e-03 1.06345385e-03 -3.33682052e-03 -5.92651032e-03
    9.60892998e-03 2.17241398e-03 -1.22087495e-02 -1.28144224e-03
    5.11807669e-03 -9.30058770e-03 -7.85431731e-03 -4.53169178e-03
    -4.06816695e-03 3.35864723e-04 4.38498566e-03 -1.14489375e-02
    -1.76852883e-03 7.47418590e-03 5.13329823e-03 -1.64123659e-03
    -3.76527873e-03 -7.07381312e-03 -1.13738924e-02 -1.59930624e-02
    -6.19974174e-03 -9.52429511e-03 6.55359449e-03 3.72681138e-03
    2.88469554e-03 2.75647826e-03 6.15116348e-03 9.47004836e-03
    -3.12752230e-03 -9.17074643e-03 1.43777337e-02 7.69462995e-03
    -9.10150632e-03 -2.02811193e-02 -1.50264744e-02 -1.25996638e-02
    -1.52422367e-02 -6.34341920e-03 -1.83599547e-03 1.62915066e-02
    9.17443261e-03 -6.20848004e-05 -2.50872254e-04 -6.78277388e-03
    -1.20012555e-03 -1.02501083e-03 -1.65309547e-03 2.88347644e-03
    -1.85257625e-02 4.54567932e-03 3.04006436e-03 7.23164249e-03
    6.13939250e-03 3.74473189e-03 5.44574019e-03 -8.61102156e-03
    -1.36311622e-02 -1.55089721e-02 -3.56503576e-03 2.32239068e-03
    7.19460193e-03 6.41016616e-03 -7.38222850e-04 8.26393312e-04
    -1.19462814e-02 -1.36900153e-02 1.28559247e-02 1.09525826e-02
    2.99895508e-03 7.35746510e-03 1.75757415e-03 1.08960783e-03
    -9.48287430e-04 -4.58800793e-03 2.80871033e-03 5.94387483e-03
    5.38558653e-03 4.76925168e-03 7.83122331e-03 5.68976952e-03
    -7.05452578e-04 1.76618854e-03 -5.01785520e-03 -2.28081131e-03
    -7.39615085e-03 -4.31464054e-03 1.62632228e-03 3.45316366e-03
    2.61193351e-03 -1.02800608e-03 -1.78702909e-03 -1.19818347e-02
    -6.77355379e-03 -6.23365305e-03 -5.34343394e-03 -1.11521927e-04
    7.59442628e-04 -1.25501363e-03 -2.89774570e-03 -1.72344875e-03
    -1.91995297e-02 -2.71596666e-03 1.41813038e-02 3.60223209e-03
    3.10098100e-03 5.63597260e-03 2.96667987e-03 -2.73681595e-04
    -5.69382682e-04 -6.79638004e-04 9.45381727e-03 6.29157946e-03
    -3.20498715e-03 1.74271397e-03 4.30252822e-03 2.00748723e-03
    1.45092874e-03 1.70002703e-03 -5.43726562e-03 5.19084325e-03
    -2.52814870e-03 2.51766003e-04 1.01274857e-03 -8.87766015e-04
    -1.56205846e-03 -2.72259093e-03 -1.65092445e-03 -1.76226553e-02
    -5.35283796e-03 -4.00843099e-03 1.08343561e-03 -7.94617925e-04
    -2.06937059e-03 -1.38906273e-03 -2.04355875e-03 -6.39773719e-03
    -2.02334486e-02 -3.19184689e-03 1.22694438e-02 -3.50322749e-04
    3.14177596e-03 2.53219949e-03 9.88152809e-04 -1.71256412e-04
    3.06437607e-03 -5.15523134e-04 5.64054912e-03 9.70101915e-03
    -4.27947519e-03 -4.68319887e-03 -4.33789770e-04 -1.02422317e-03
    -3.48529499e-03 -1.13626698e-03 5.08464000e-04 4.34750551e-03
    1.50657690e-03 1.43196818e-03 7.58599665e-04 -6.90021028e-04
    -2.19093845e-03 -2.86300480e-03 -6.62927469e-03 -1.28906695e-02
    -6.10454939e-04 -4.16991068e-03 3.36856092e-03 7.48078455e-04
    -1.84194313e-03 -4.01920173e-03 -4.90709720e-03 -7.94306677e-03
    -2.11759061e-02 -1.46238657e-03 1.51991053e-02 -7.33667146e-03
    -4.23308322e-03 -4.06802312e-04 -8.50011711e-04 -1.55973632e-03
    -3.21666850e-03 3.83237406e-04 1.40821673e-02 2.88177282e-03
    3.28232604e-03 3.55884992e-03 -3.98079108e-04 -3.94012220e-03
    -3.80744063e-03 -8.07472225e-03 -1.01770498e-02 1.38532231e-03
    -1.61343534e-03 6.51149126e-03 1.80539500e-03 -1.61179400e-03
    -2.05044053e-03 -2.06007808e-03 -4.27411543e-03 -2.04793941e-02
    -9.39757039e-04 -1.92212255e-03 5.72027918e-03 9.22243984e-04
    -2.34424998e-03 -1.58655131e-03 -1.00813864e-03 -1.90136186e-03
    -2.73646750e-02 -1.47537363e-03 1.03096860e-02 1.50228236e-02
    5.81371738e-03 3.84370593e-04 -1.63353817e-03 -4.14040592e-03
    -7.12354761e-03 -9.30660218e-03 -1.67055358e-03 1.25458306e-02
    9.71539319e-03 6.99853478e-03 2.27168319e-03 4.11374727e-03
    -2.04255781e-03 -5.14059467e-03 -1.40349716e-02 2.22195243e-03
    9.83830076e-03 4.12320904e-03 -1.70914733e-04 -1.92849583e-03
    -9.22275358e-04 -6.60546182e-04 -2.50716985e-04 -2.31554620e-02
    -2.84483866e-03 7.51777552e-03 9.78988968e-03 1.35671883e-03
    -2.43058801e-03 -3.51673434e-03 -1.95936672e-03 -5.07540768e-03
    -2.04771347e-02 -3.33613041e-03 1.06361220e-02 4.37941402e-03
    6.28747093e-03 3.45014362e-03 6.30107196e-03 4.66569792e-04
    2.00286755e-04 -1.16608087e-02 4.23553539e-03 3.84404149e-04
    2.46533332e-03 2.02604639e-03 3.83583503e-03 6.48413925e-03
    3.25905369e-03 2.20931228e-03 -1.75922979e-02 3.33762990e-04
    1.61984079e-02 1.71719640e-02 4.06029960e-03 1.80659164e-03
    1.36967492e-03 3.59193800e-04 -4.01780126e-04 -1.35495747e-02
    3.87794664e-03 1.25272600e-02 4.09122463e-03 -3.51211615e-03
    -2.38104328e-03 7.74779241e-04 1.90979964e-03 -3.83052306e-04
    -3.45520303e-03 7.39000645e-03 -1.82744849e-03 5.51139284e-03
    2.21769954e-03 6.08040718e-03 9.27115045e-03 7.54333427e-03
    7.57415546e-03 -1.61259230e-02 -1.04138376e-02 -6.87795458e-03
    1.79584211e-04 -8.80584295e-04 5.48367214e-04 3.95769160e-03
    3.46157094e-03 4.74335306e-04 -1.73307285e-02 -1.61256734e-02
    3.16609219e-02 1.24232378e-02 -2.07889192e-02 -2.36849543e-02
    -2.23278143e-02 8.01301794e-04 4.74419026e-03 6.02208404e-03
    1.17401760e-02 2.45304313e-02 -5.20870276e-03 -1.08394343e-02
    -2.75976420e-03 -4.66927188e-04 6.44899020e-03 7.78401503e-03
    4.24476247e-03 7.94700347e-03 8.23750813e-03 6.09965622e-03
    -1.98098999e-02 -2.33615004e-02 -1.12990104e-02 2.60517187e-03
    5.50695322e-03 8.30613263e-03 6.71580900e-03 1.45840487e-02
    3.71830794e-03 -8.80089309e-03 -6.75992342e-03 5.68456436e-03
    5.65743027e-03 8.38067569e-03 8.12314916e-03 6.64054835e-03
    5.63319307e-03 -2.33010259e-02 -1.79915447e-02 2.11066523e-04
    9.89101455e-03 1.15186684e-02 5.42717660e-03 -2.30598132e-04
    -1.59440283e-03 -9.32234619e-03 -1.65924486e-02 -1.14076212e-02
    6.94717607e-03 1.64407827e-02 1.24044521e-02 7.68089201e-03
    1.72068819e-03 -7.72565650e-03 7.38492562e-03 -2.66025215e-03
    -6.33931952e-03 4.79162845e-05 6.62815338e-03 1.15989735e-02
    9.44224000e-03 3.38787981e-03 2.76236888e-03 -2.45499145e-03
    1.49872387e-03 -1.11805787e-03 8.04138649e-03 1.13392398e-02
    7.34882336e-03 9.15997382e-03 3.02655227e-03 -7.86994293e-04
    -1.66194569e-02 -1.35648334e-02 -4.27549751e-03 1.65106263e-03
    8.96736141e-03 6.68288488e-03 6.29514921e-03 4.70811501e-03
    -5.67949144e-03 -1.78979598e-02 -1.07206041e-02 -5.75609412e-03
    3.05535132e-03 1.74011290e-02 1.66590661e-02 1.70243084e-02
    1.02707148e-02 -1.23100737e-02 -7.38517474e-03 -1.53236918e-03
    -8.06097221e-03 4.18189185e-04 4.22720425e-03 5.96163620e-04
    6.19215891e-03 3.03252484e-03 -1.84458552e-03 -9.73639078e-03
    -7.71386130e-03 -8.88536312e-03 -1.62128825e-03 2.94096186e-03
    2.31489982e-03 9.13698040e-03 4.82265512e-03 2.11955421e-03
    -8.73186998e-03 -4.76476410e-03 -7.38738058e-03 3.79394449e-04
    1.26643777e-02 8.94107670e-03 1.68652423e-02 3.78034241e-03
    -1.41312461e-02 1.14899292e-03 -2.05745921e-03 -6.73676468e-03
    -7.93327577e-03 -1.00485068e-02 -6.57826615e-03 3.97600280e-03
    -3.31321877e-04 6.44750521e-03 -6.23386726e-03 -1.27087871e-04
    -4.66622738e-03 -3.52017023e-03 5.94412815e-03 1.91510830e-04
    8.80070031e-03 -9.23216692e-04 -3.22180707e-03 5.56835765e-03
    1.47735700e-02 -1.02352537e-03 1.56017509e-03 -1.62249210e-03
    -1.83907412e-02 -1.13339843e-02 -1.07237054e-02 -1.00316259e-03
    7.56823225e-03 1.56974688e-03 -4.92857397e-03 -1.20323515e-02
    -1.48961870e-02 -7.67862471e-03 -2.89667258e-03 1.45904860e-02
    1.95633303e-02 1.01233730e-02 -5.41960821e-04 -1.10955788e-02
    -1.89458709e-02 -2.37364881e-02 -9.17035434e-03 -5.15922392e-03
    1.18479896e-02 1.86236482e-02 8.61873291e-03 5.90388523e-03
    1.59641856e-03 4.45126370e-03 -4.34258208e-03 -1.29838111e-02
    -1.08377142e-02 -6.02416229e-03 2.88379029e-03 1.32698119e-02
    3.12236184e-03 -6.44494256e-04 -2.17711895e-05 -4.10896493e-03
    -5.46308793e-03 -8.93861894e-03 4.62385407e-03 4.62385407e-03
    5.55265835e-03 -1.24246266e-03 -8.12785048e-03 -1.25463102e-02
    -1.79020464e-02 -1.19197350e-02 -2.31899670e-03 2.05108561e-02
    2.56986488e-02 -1.54599417e-02 -7.99729209e-03 -3.44449049e-03
    -2.89059943e-03 -7.43962219e-03 -1.06942803e-02 -1.02783404e-02
    -3.72031843e-03 1.65997562e-03 1.22287180e-02 3.53439897e-03
    -1.41527457e-03 -3.01427208e-03 -4.47754422e-03 -1.99820963e-03
    1.36921357e-03 2.60817033e-04 1.80397776e-03 -2.13096780e-03
    4.75585926e-04 2.67906743e-03 1.47623068e-03 -8.97181919e-04
    1.86251523e-03 -3.64850438e-03 -2.24867300e-03 -6.51393726e-04
    -1.00078862e-02 -9.46679898e-03 -3.56842997e-03 4.23976406e-03
    1.47054659e-03 1.59033341e-03 1.26818323e-03 -5.70399547e-03
    -1.33323353e-02 -3.96734430e-03 -7.73267169e-03 -1.44789498e-02
    -6.46973681e-03 -1.68499642e-03 3.75394011e-03 9.83296242e-03
    1.38937421e-02 -5.74445771e-03 -5.41251199e-03 -1.63351011e-03
    7.13249203e-03 7.47395400e-03 5.28947962e-03 5.36788628e-03
    -2.59572756e-03 -6.75858743e-03 -2.64868699e-03 -3.80745111e-03
    -6.54067332e-03 -1.74126064e-03 4.06111823e-03 5.32785431e-03
    3.79128288e-03 3.36985849e-03 1.81166467e-03 2.84521980e-03
    9.93351452e-03 -7.85616040e-03 -2.30043028e-02 -2.08569318e-02
    -8.82323552e-03 -2.43245973e-04 2.22176197e-03 7.15486333e-03
    5.38520562e-03 1.09923976e-02 5.19804610e-03 -5.45269251e-03
    -4.58237901e-03 -1.45859120e-03 8.35434068e-03 7.55242864e-03
    7.10998755e-03 1.36444811e-02 -5.49245486e-03 -9.95486416e-03
    -1.31860888e-02 -3.94217065e-03 6.70698704e-04 9.81112942e-04
    1.73706375e-03 -2.38603665e-04 -5.02598193e-03 -8.34137434e-04
    -9.48289689e-03 -9.17197485e-03 -2.10194569e-03 -5.79792715e-04
    4.98117832e-03 7.07114860e-03 4.86744381e-03 -2.39004759e-04
    1.46872168e-02 1.33895529e-02 1.58424315e-03 1.40593678e-03
    2.60950997e-04 3.24392924e-03 -1.21217256e-03 -9.30007431e-04
    6.34577824e-03 1.24236029e-02 2.18325444e-02 4.07812092e-03
    1.70410227e-03 -1.01591041e-03 -8.17125838e-04 -4.43373388e-03
    -4.39740391e-03 -6.74011977e-03 -4.98343667e-04 -8.74382164e-03
    -5.83072938e-03 -1.00769033e-03 -6.75204938e-05 4.60923510e-03
    5.00711671e-04 -1.72559824e-03 -9.02199559e-03 1.53550936e-03
    3.92663479e-03 -1.46275070e-02 -9.69949644e-03 -1.21106803e-02
    -9.94295906e-03 -1.73312873e-02 -1.45443557e-02 -6.57633459e-03
    1.62189011e-03 1.53262252e-02 4.73690033e-03 3.04280221e-03
    -1.48439337e-03 2.17979177e-04 6.59969868e-04 2.15011858e-03
    -6.56960532e-03 4.05543437e-03 4.66444995e-03 8.50365311e-03
    1.04047135e-02 8.18182807e-03 1.26568824e-02 6.36413926e-03
    -1.97642250e-03 -2.44169799e-03 2.70248484e-03 1.90389343e-02
    -3.41002597e-03 -6.18136488e-03 -1.31692709e-02 -1.24987308e-02
    -1.23533569e-02 -8.49491265e-03 -1.11365076e-02 -1.58251058e-02
    1.02019403e-02 1.94631908e-02 1.30598303e-02 6.84506027e-03
    8.30745976e-03 -1.01185136e-03 -2.12166347e-02 -2.45909560e-02
    4.83475626e-03 -6.81586144e-03 4.94548865e-03 7.71880755e-03
    6.29715016e-03 1.00836577e-02 6.38405047e-03 6.45747175e-03
    3.12171667e-03 4.82068816e-03 -1.83734447e-02 -1.06517533e-02
    -8.60092769e-05 1.01476361e-03 2.19890871e-03 6.51423726e-03
    2.25780997e-02 1.61395688e-02 -1.17024854e-02 -8.03275220e-03
    1.00228945e-02 1.04423976e-02 4.84807556e-03 1.38024408e-02
    1.81536586e-03 -1.38841532e-02 -1.95645913e-02 -4.35323641e-03
    -7.75083853e-03 -1.35907130e-02 -3.63610778e-03 -4.04366944e-03
    4.94326185e-03 2.87784380e-03 1.20417168e-02 2.47315317e-03
    1.41661381e-02 -1.37512190e-02 -8.87662079e-03 -8.74597288e-04
    -1.20052346e-03 -2.59161694e-03 8.73260724e-04 1.60681866e-02
    2.57120542e-02 3.82702309e-03 5.08075207e-03 4.24792990e-03
    -2.57494044e-03 -1.60584860e-02 -1.53303109e-02 -9.36694816e-03
    1.13117578e-03 -3.07594356e-03 7.88949896e-03 5.50019089e-03
    -6.04549935e-03 -2.37892987e-03 -7.41113676e-03 -7.41653098e-03
    -8.24587420e-03 1.50776878e-02 1.38296187e-02 4.49620234e-03
    1.09458957e-02 2.52729794e-03 -7.55678723e-03 -2.05417108e-02
    -2.63241958e-02 -2.31207386e-02 2.14635115e-03 5.75590925e-03
    -1.03235273e-02 8.50324612e-03 5.67145040e-03 -1.86822377e-03
    -1.10995695e-02 -1.12731038e-02 -7.62481475e-03 -4.23861435e-03
    -1.49982758e-02 -7.10671395e-03 4.91582416e-03 1.86231062e-02
    1.32069504e-02 1.49963424e-02 1.25055411e-03 -2.66076671e-03
    -1.12299975e-02 -1.62545070e-02 -8.31229426e-03 -1.69607543e-03
    -1.17109751e-03 -4.15181275e-03 -1.47180343e-02 -1.21144690e-02
    -7.79988710e-03 3.01994896e-03 -7.29596568e-03 -1.01782857e-02
    -5.22273453e-03 1.02962134e-02 1.30927786e-02 3.58542148e-03
    7.91536830e-03 7.15361489e-03 -5.80443675e-03 -1.78173222e-02
    -7.28926621e-03 2.01705354e-03 1.62315834e-02 1.32023124e-02
    1.35299265e-02 -1.55042077e-03 -4.62181447e-03 -1.21270139e-02
    -1.49676930e-02 -1.11527285e-02 -4.15991945e-03 6.43625669e-03
    7.86017720e-03 1.26220658e-02 2.54162285e-03 -2.90403189e-03
    -8.51084664e-03 -1.32080121e-02 -3.76685616e-03 -6.66296750e-04
    9.03693680e-03 8.90884921e-03 6.22455205e-04 -8.28217436e-03
    -9.66454018e-03 -1.00668427e-02 -1.03747146e-02 -5.72097255e-04
    -5.41973859e-03 1.48094713e-03 7.74616143e-03 6.09908672e-03
    -9.00591433e-04 -1.03317089e-02 -8.21705326e-04 2.12537870e-03
    -1.05689997e-02 -2.92196800e-03 3.07716173e-03 7.80021073e-03
    1.29686929e-02 7.00482167e-03 9.94023029e-03 -1.18835270e-02
    -2.01736987e-02 -1.20210601e-02 -1.31967454e-03 1.67318573e-03
    4.42388281e-03 1.64181180e-03 -2.35608080e-03 -4.67426097e-03
    -1.89969689e-02 -2.45061405e-02 -2.17063935e-03 -1.79590157e-03
    6.69961143e-03 1.47932172e-02 2.42822841e-02 1.71313193e-02
    1.15712257e-02 8.58892407e-03 2.99658487e-03 -6.04751112e-04
    7.51568191e-03 1.17651736e-02 1.67692937e-02 3.54281534e-03
    8.40671454e-03 9.78517439e-03 -4.62069584e-04 -8.49546865e-03
    1.27962185e-02 8.89937114e-03 -9.58088413e-03 -2.34493483e-02
    -8.93139467e-03 -1.05705587e-02 1.17973669e-03 6.39016833e-03
    7.72332726e-03 1.81126874e-02 1.18451146e-02 1.45532063e-03
    -1.99562125e-03 1.23838838e-02 -1.01328699e-03 4.44104895e-03
    5.08011691e-03 8.59227311e-03 2.21752040e-02 1.59759335e-02
    5.48349274e-03 -1.72749516e-02 -1.05852494e-02 -1.97018888e-02
    -8.59847944e-03 7.26436963e-03 1.78028755e-02 1.27284201e-02
    1.42824799e-02 9.34734009e-03 -9.70186491e-04 2.82955682e-03
    -6.76097581e-03 -2.20610132e-03 6.01204764e-03 9.81246121e-03
    3.97232501e-03 2.78975442e-03 -2.92936643e-03 -4.36335616e-03
    3.80384899e-03 2.01867195e-03 1.76392181e-03 1.44171226e-03
    1.91017694e-03 -2.95188813e-03 5.86631242e-03 -1.64870138e-03
    -1.51350873e-03 4.70632175e-03 1.56081701e-03 5.50527638e-03
    3.45293502e-03 8.64001340e-04 -3.29273008e-03 9.38571175e-04
    -5.87615557e-03 -6.70206593e-03 4.24836623e-03 6.46252651e-04
    -6.21087942e-03 -5.02029958e-04 -4.09836089e-03 -7.62578053e-03
    -3.30365496e-03 9.12430580e-04 -3.48575204e-03 6.83743367e-03
    7.92982150e-03 -1.03650840e-04 3.97329079e-03 -4.83885407e-03
    -2.38285400e-03 2.81584170e-03 -3.09061143e-03 1.38948532e-03
    9.30228096e-04 -3.89347388e-03 1.92605250e-03 2.65400461e-03
    -2.75894371e-03 -1.27620553e-03 3.27409682e-04 -4.43382561e-03
    4.12695430e-04 -3.26770684e-03 1.59767829e-03 2.48906738e-03
    1.15695852e-03 1.09138084e-03 -7.30388844e-03 -1.40006875e-03
    1.19622692e-03 3.54748918e-03 2.93443649e-04 -8.53051723e-04
    3.20920284e-04 2.13989150e-03 -4.46550082e-03 -6.97958109e-04
    9.29215085e-03 -3.77169112e-03 1.03194276e-02 4.56366129e-03
    2.67920597e-03 -2.98630772e-03 -5.01018064e-03 1.49391868e-04
    2.28072889e-03 8.32532905e-03 1.47176883e-03 -3.37394024e-03
    8.78800871e-04 -2.31087906e-03 2.21541966e-03 -5.17765118e-04
    1.56436802e-03 5.70565509e-03 9.96137410e-03 -4.84190695e-03
    -8.13877676e-03 5.74705843e-03 -2.57203681e-03 2.98474287e-03
    1.99080468e-03 -3.94242443e-03 7.03128660e-03 1.67870317e-02
    -4.60314006e-03 -5.29231364e-03 1.84354780e-04 -1.98782771e-03
    -2.08740216e-03 -1.50907959e-03 6.78983517e-04 8.46243277e-03
    -1.50840674e-02 -1.63666699e-02 -1.86925903e-02 -5.32717071e-03
    2.56104511e-03 2.91280122e-03 3.64378677e-03 1.22152548e-03
    5.61579689e-03 4.73259902e-03 -1.15238095e-03 1.44513708e-03
    1.25960284e-03 6.65756525e-04 3.63270403e-03 -4.57052462e-04
    -5.59031731e-03 5.57301333e-03 8.59976280e-03 4.71973605e-03
    5.20780263e-03 2.09445832e-03 1.74946093e-03 5.39660919e-03
    -1.16184568e-02 -2.66917446e-03 -8.17514304e-03 -1.09252520e-02
    -1.93499252e-02 -4.04605456e-03 5.23339445e-03 6.55817520e-03
    2.63184099e-03 4.06907499e-03 -5.22696273e-03 -1.48125421e-02
    -8.31177924e-04 9.63609014e-03 1.69896353e-02 1.44231562e-02
    1.03715975e-02 2.01539765e-03 -4.50250600e-03 -1.46844713e-02
    1.43474713e-03 1.07127456e-02 3.94715602e-03 2.10837857e-03
    9.17079858e-04 8.69737181e-04 4.70432965e-03 -6.93316525e-03
    -9.75718722e-03 -4.07590112e-03 9.88595188e-03 3.59241944e-03
    3.54221510e-03 1.70645711e-03 2.59281183e-03 4.19479422e-03
    9.34923883e-04 -3.27852275e-03 -7.52485963e-03 1.46548180e-02
    1.47022177e-02 9.35526565e-03 7.58827804e-03 3.93257476e-03
    1.01984479e-03 -5.42105967e-03 -2.19846573e-02 -2.55313166e-03
    2.00659838e-02 9.31330491e-03 -4.66487661e-04 2.12915591e-03
    -8.11905309e-04 1.12613069e-03 3.42355180e-03 -3.01450654e-03
    -9.99058317e-03 -1.95136212e-03 2.47311720e-04 3.19584575e-03
    2.31163320e-03 3.52252624e-04 4.71339241e-04 3.36144818e-03
    -4.85616224e-03 -6.00301009e-03 -1.02495253e-02 -1.48695440e-03
    1.99095323e-03 3.82697908e-03 -2.62787187e-04 1.57042954e-03
    2.27138679e-03 1.18783012e-03 -5.69048570e-03 7.62552349e-03
    4.18755878e-03 -2.71956029e-04 3.81564046e-03 7.05712824e-04
    4.22665849e-03 8.16623028e-03 -3.14888731e-03 -4.01936891e-03
    -6.88713742e-03 -9.35637974e-04 4.83315578e-03 1.01472782e-02
    6.67769648e-03 1.09918974e-02 1.49600152e-02 1.13595219e-03
    -1.86193187e-03 -6.00908417e-03 -1.94729888e-03 1.62096904e-03
    2.26790342e-03 1.34114453e-04 1.25450140e-03 -4.20835614e-03
    -2.14370363e-03 -6.37912937e-03 -2.77695945e-03 -3.39412503e-03
    3.10027017e-03 2.06724228e-03 3.95391649e-03 1.67669356e-03
    -5.23520540e-03 -5.78149175e-03 1.37398636e-03 -1.47657655e-03
    -2.00818805e-03 5.05613629e-03 6.34435471e-03 4.28631576e-03
    9.87773575e-03 6.43984694e-03 7.17093516e-03 7.27690000e-04
    1.17191905e-02 2.39267922e-03 4.82874038e-03 6.02115924e-03
    1.16045391e-02 6.46719569e-03 -1.58669036e-02 -9.93526448e-03
    -9.67709784e-05 -2.05827085e-03 -2.04991293e-03 1.51138869e-03
    1.34934520e-03 5.26731554e-03 2.22808798e-03 3.42236948e-04
    3.53415962e-03 9.93591174e-03 -4.35406808e-03 -1.94467362e-02
    -1.08211879e-02 -1.18592344e-02 -7.38980900e-03 -6.58795377e-03
    5.08137839e-03 9.45810881e-03 1.15929509e-03 7.96551723e-03
    4.92347172e-03 3.74502293e-03 4.43713972e-03 9.15696099e-03
    8.67140770e-04 -1.30471261e-02 -8.43978114e-03 -9.71900416e-04
    -5.43301366e-03 -7.34343473e-03 -5.47687011e-03 -8.07018392e-03
    -9.32809664e-04 1.64488214e-04 1.13646202e-02 2.60111014e-03
    1.26771200e-02 7.77948834e-03 -1.37402629e-02 -1.34130791e-02
    -1.43796243e-02 -1.46108726e-02 -9.70710907e-03 -5.67026262e-04
    6.83735637e-03 6.18733047e-03 7.29297381e-03 1.45960934e-02
    3.90268047e-03 -1.19151117e-03 -6.52680034e-03 -1.90909451e-03
    4.80987970e-03 -3.61251156e-03 1.66231615e-03 -4.83443448e-03
    -9.84867942e-03 -9.67031438e-03 -1.56361572e-02 -1.06687900e-02
    -2.69340025e-03 8.86746123e-03 3.62157146e-03 7.77845364e-03
    -1.11328652e-02 -1.08340988e-03 -4.93229134e-03 -1.15453005e-02
    -1.27410879e-02 -2.59392848e-03 1.31927086e-02 5.63225988e-03
    5.96393424e-04 -7.11735524e-03 2.35493295e-03 1.32000796e-03
    -7.13772187e-03 2.53590546e-03 1.57811563e-03 2.09510978e-03
    -2.30890699e-03 5.69585059e-03 8.67612776e-04 -7.43853301e-03
    -4.36282577e-03 -9.80011933e-03 3.50150466e-03 -5.13770944e-03
    2.81344191e-03 2.96588475e-03 8.53508618e-03 -8.05876777e-03
    -8.64781998e-03 -1.05964541e-02 -1.30654601e-02 -7.68336002e-03
    -4.03372152e-03 9.64254513e-03 1.38460062e-02 1.66419670e-02
    1.85432378e-02 5.11603942e-03 -3.24328337e-03 -8.18576664e-03
    -6.23010192e-03 -1.40923336e-02 -7.77855050e-03 1.47641096e-02
    1.07984794e-02 1.00933751e-02 -3.50831542e-04 -3.83776147e-03
    -1.02528362e-02 -4.36141947e-03 -6.73696445e-03 1.71507113e-02
    1.16876345e-02 7.07356771e-03 1.31396195e-02 -3.10818199e-04
    -1.76648330e-02 -2.86019500e-02 -1.95726696e-02 -7.71459425e-03
    1.00320727e-02 9.79081728e-03 1.62853673e-02 2.14233734e-02
    7.37899542e-03 -3.64769483e-03 -6.92738406e-03 -3.19655659e-03
    1.79637456e-04 1.50590297e-02 2.09438577e-02 4.28022025e-03
    3.69970128e-03 -9.77533986e-04 -1.88544728e-02 -2.77114343e-02
    -1.27476873e-02 1.14728604e-02 1.43284146e-02 1.86588056e-02
    -1.27824908e-03 5.34278527e-03 9.99164302e-04 -7.00634625e-03
    -1.96370929e-02 -1.33747412e-02 1.07200246e-03 2.53572757e-03
    -6.91474183e-04 -1.18097616e-03 -3.65336833e-04 7.32564880e-03
    8.18586163e-03 -2.60231813e-04 5.38668875e-03 7.36923050e-03
    -3.19613237e-03 -8.47406313e-03 4.24780184e-03 7.50860013e-03
    7.51022575e-03 -1.38307847e-02 -2.21477896e-02 -1.27170775e-02
    -3.68115492e-03 -7.56543037e-03 2.91560800e-03 3.76484660e-03
    -1.42436754e-03 2.07401859e-03 -5.96392807e-03 1.93400437e-03
    8.13521538e-03 1.73478592e-02 -4.44018049e-03 -3.46487132e-03
    -1.69732448e-04 -3.44516290e-03 -1.64957123e-03 -4.68165753e-03
    -2.23771716e-03 -6.28776290e-03 -1.11206609e-03 -4.58703097e-03
    -3.92536400e-03 -1.14079076e-03 -8.28857720e-03 -2.97884876e-03
    -2.37561739e-03 3.48971738e-03 3.53447883e-03 -2.83306278e-03
    2.37322575e-03 5.90356253e-03 8.46863084e-04 -9.55561642e-03
    -1.35834953e-02 -1.25352675e-02 -5.60757937e-04 9.52784717e-03
    1.62987672e-02 5.08243404e-03 -1.87866646e-03 2.64557102e-03
    -5.73644694e-03 -5.46766678e-03 -5.84030058e-03 -5.01986220e-03
    -1.89910654e-03 8.69896077e-03 5.10020228e-03 3.68398777e-03
    -1.09887291e-02 -1.07566733e-02 2.57795188e-03 6.89993100e-03
    8.78529437e-03 8.60569812e-03 -1.80142687e-03 -3.98361823e-03
    7.63689604e-05 -3.31265270e-03 1.63738858e-02 2.21972205e-02
    1.87754054e-02 -4.71881265e-03 -1.61907868e-03 -8.32622126e-03
    -1.85704194e-02 -7.99560454e-03 -3.42828105e-04 -7.49188694e-05
    4.63663042e-03 -2.04474921e-03 -1.00824982e-02 -7.80201564e-03
    -1.10611534e-02 -3.74287856e-03 2.58905068e-03 4.65708273e-03
    9.61447880e-03 1.25021907e-02 8.82437511e-04 -7.62267550e-03
    -2.50832946e-03 -7.88491406e-03 -5.29424055e-03 -9.51355963e-04
    1.01569593e-02 4.23626788e-03 1.28950027e-03 -8.24920554e-03
    -1.74506176e-02 -1.87404007e-02 -1.39318090e-02 8.90193880e-03
    1.76591184e-02 7.48149538e-03 5.21665625e-03 3.78912711e-03
    -3.69192311e-03 -5.65518625e-03 -7.22670089e-03 -4.51280084e-03
    4.61636856e-03 1.27690090e-02 4.22937097e-03 -1.29747111e-03
    -1.83705939e-03 -1.70680578e-03 -6.58041891e-03 -7.49900471e-03
    -1.37409782e-02 6.00522244e-03 1.71108041e-02 9.58070438e-03
    4.48376127e-03 3.42677906e-03 1.74854032e-03 -3.35843535e-04
    -1.86647698e-02 -2.49191932e-02 7.42745935e-04 2.31691413e-02
    4.53679124e-03 2.16331193e-03 -3.83271137e-03 -5.47062559e-03
    -1.41811301e-03 3.00804246e-03 -4.02250374e-03 -2.50739953e-03
    2.15297216e-03 4.85915953e-04 -2.08463334e-03 1.21671893e-03
    -3.30568897e-03 -1.14521966e-03 7.00864708e-03 -4.49611014e-03
    -4.50015906e-03 -2.91409111e-03 1.25447642e-02 8.08554608e-03
    -3.91469483e-04 -2.76355864e-03 -2.83863861e-03 -1.24400416e-02
    -2.08043586e-02 -4.06073028e-04 8.01388733e-03 1.08944448e-02
    5.53736882e-03 1.03318808e-03 -4.62057674e-03 -1.17668428e-03
    -2.55734799e-03 -1.16029596e-02 -7.77314836e-03 9.19398479e-03
    -4.51030349e-03 -2.10136268e-03 2.26494321e-03 -3.71475646e-04
    -2.82218470e-03 -1.78290764e-04 -3.18659400e-03 -3.53941997e-03
    -3.36543983e-03 -4.21913341e-03 7.51398830e-03 2.10238318e-03
    8.64711124e-03 4.40474553e-03 1.58711581e-03 -6.70353649e-03
    -5.97155187e-03 -4.87385923e-03 2.82114139e-03 4.34330758e-03
    8.58464371e-03 -2.14259329e-04 2.35630185e-04 -4.29170299e-03
    -9.91233066e-03 -1.38518428e-02 -6.37078192e-04 -1.20743532e-02
    9.01715644e-03 2.18470283e-02 1.21276872e-02 4.92448127e-03
    1.56807830e-03 -6.57356391e-03 -1.29504427e-02 -1.33221569e-02
    3.61815281e-03 1.23619996e-02 3.11685610e-03 3.05394060e-03
    4.25734790e-03 6.75444212e-03 -2.01507410e-05 5.82927780e-04
    1.08859094e-03 7.17189210e-03 6.71547314e-04 -1.64500680e-02
    -1.30836824e-02 -9.44460463e-03 3.50243482e-03 4.08463459e-03
    5.60886506e-03 7.71522848e-03 2.33299658e-03 1.08768158e-02
    1.40596582e-02 4.90351161e-03 -1.77498077e-04 6.70517096e-03
    2.77981930e-03 -2.67109775e-04 2.50487181e-04 7.66138686e-03
    3.34077165e-03 -8.78591789e-04 -1.60123575e-02 -1.33379977e-02
    -1.10833170e-02 8.21777619e-03 7.53256585e-03 8.63533560e-03
    -7.12500885e-03 -1.11530162e-02 -1.70273222e-02 -2.25837692e-03
    2.38324050e-03 5.11802686e-03 1.87522674e-03 4.21973411e-03
    2.37314333e-03 -1.90827474e-02 -9.86884814e-03 5.48373093e-04
    1.74718518e-02 2.48600915e-02 2.00471338e-02 -2.03731679e-03
    -4.14897874e-03 -1.14690559e-02 -3.36206704e-03 -6.71520596e-03
    -6.28932798e-03 -8.68928246e-03 -3.15679680e-03 -3.32494616e-03
    4.34173038e-03 2.52787280e-03 1.28026854e-03 -9.78313107e-03
    -1.11573311e-02 -8.58702604e-03 -1.02757476e-03 8.16230103e-03
    1.63632985e-02 -7.85273907e-04 -9.46042314e-03 -9.49990656e-03
    -1.23481406e-02 6.87829312e-03 1.18708517e-02 8.08860175e-03
    1.63371190e-02 1.06481360e-02 -3.55844502e-03 -8.93894956e-03
    -1.10654738e-02 -1.10288290e-03 1.21343434e-02 1.13671012e-02
    -1.94501481e-03 5.74874878e-03 5.28592849e-04 -7.28021655e-03
    -4.96490439e-03 -2.89944321e-04 -8.76961742e-03 -9.27474163e-03
    -7.75540189e-04 1.70260132e-03 1.45496344e-02 8.96709133e-03
    -4.00844589e-03 -1.77504886e-02 -9.68448073e-03 -7.53992796e-03
    6.24186883e-04 2.60232738e-03 -6.45494671e-04 1.01349279e-02
    -5.14111074e-04 -4.76757996e-03 -4.07602638e-03 -6.83183549e-03
    -1.16478850e-03 4.58248099e-03 5.85997896e-03 -3.52699921e-04
    4.84097423e-03 -3.76325077e-03 -7.51495268e-03 -2.47910013e-03
    -2.23413925e-03 -4.89744404e-03 3.94382805e-04 2.42458610e-03
    1.10256048e-02 1.23282205e-02 3.97827290e-03 3.70892626e-03
    4.39894851e-03 -3.92797776e-03 -5.47108939e-03 2.07939744e-03
    7.69149337e-04 -5.90341026e-03 8.05294199e-04 -1.20966434e-02
    -9.18323826e-03 -8.89399031e-04 -4.49506588e-05 2.47453852e-03
    1.13270320e-02 3.75056639e-03 6.43436681e-04 -5.73441200e-03
    -5.22546796e-03 1.42035226e-03 6.35467190e-03 5.59774181e-03
    -1.24022877e-02 -2.52654916e-03 -1.16056867e-03 9.94484685e-03
    1.22795934e-02 4.51473845e-03 6.64856145e-03 -1.33702533e-05
    -1.04959616e-02 -9.94398724e-03 2.32333317e-03 2.38412200e-03
    4.95424727e-03 7.62067828e-03 1.09874401e-02 1.04390783e-02
    -1.29118720e-02 -1.90082565e-02 -1.09638078e-02 -1.59069372e-03
    -1.34065293e-03 1.25976996e-02 -2.25643790e-03 1.86899997e-04
    2.34950916e-03 4.19001514e-03 -5.05305175e-03 -1.41705051e-02
    -5.29547362e-03 -1.56400399e-03 1.09925279e-02 1.02686649e-02
    8.12403578e-03 6.53911196e-03 -1.63379198e-04 -1.14734089e-02
    -9.04438645e-03 9.03969631e-03 1.23712905e-02 7.00869132e-03
    9.56719741e-03 1.38660893e-02 7.45579600e-03 -1.09073380e-02
    -2.12373137e-02 -2.14229133e-02 1.84486120e-03 1.06491884e-02
    8.11523106e-03 1.74732297e-03 3.85982217e-03 5.74502070e-03
    1.13343890e-03 -3.96874780e-03 -8.43850430e-03 2.08849600e-03
    6.35490287e-03 9.05817933e-03 1.33803627e-02 1.52426800e-02
    1.06349047e-02 3.29334033e-03 -1.02389595e-02 -1.54314134e-02
    9.22760833e-03 1.22926319e-02 8.58581625e-03 -3.80993079e-05
    2.57481448e-03 6.30753208e-03 5.81269432e-03 -1.68967936e-02
    -1.93284694e-02 2.41920701e-03 3.16273584e-03 5.03323926e-03
    -3.29311332e-03 -2.09316309e-03 1.50355196e-03 6.04608748e-03
    3.66855820e-04 -4.65904595e-03 -1.91208888e-02 -3.27173644e-03
    1.01039543e-04 -3.50638316e-03 1.04695233e-03 4.73866938e-03
    6.43049879e-03 3.23003763e-03 -1.02697397e-02 1.15144150e-02
    9.62992851e-03 8.96967668e-03 4.02897829e-03 3.14423791e-03
    2.16681114e-03 3.16415913e-03 -1.78393908e-02 -1.49407666e-02
    4.89703007e-03 1.20493621e-02 1.20532904e-02 1.10544479e-02
    1.07465014e-02 6.49288623e-03 4.14564647e-03 -1.74060892e-02
    -4.45496757e-03 -1.50418170e-02 -1.07196840e-02 -6.77708676e-03
    -4.86369990e-03 -7.29161024e-04 2.50610802e-03 1.70035264e-03
    3.32961488e-03 1.86438467e-02 2.23715790e-02 5.98006882e-03
    -2.41938164e-03 -2.06596544e-03 -1.00551760e-02 -2.02014036e-02
    -1.74620505e-02 1.47228315e-02 -1.46404980e-02 -2.07753154e-03
    8.20836518e-03 6.51945407e-03 4.51470399e-03 7.73280161e-03
    5.49718412e-03 -3.10267392e-03 -1.30493175e-02 1.69968710e-03
    7.74630019e-03 9.48646292e-03 1.94117974e-03 3.56185343e-03
    -3.55603173e-03 -1.00800665e-02 -9.72387847e-03 -2.16234126e-03
    1.88950989e-02 1.84670109e-02 5.05431229e-03 -1.48796372e-03
    3.05918581e-03 -3.14597646e-03 -1.32122738e-02 2.70553702e-03
    2.44115219e-02 3.27245169e-03 4.17758682e-04 -1.21305883e-03
    -1.03247780e-02 -2.03722380e-02 -1.43152019e-02 -8.00352078e-03
    1.09026423e-02 2.00303737e-02 5.33631956e-03 8.46500415e-03
    4.81768465e-03 2.21190392e-03 7.96484761e-03 3.24964570e-03
    -1.63614508e-02 -4.38396167e-03 6.43815612e-03 -6.74468279e-03
    -4.51054377e-03 -6.13213424e-03 -2.38981331e-03 3.19901592e-04
    8.76077276e-04 -1.14822248e-02 3.15425079e-03 -6.77547418e-03
    2.68386374e-03 9.87546518e-04 3.22735868e-03 -1.30885141e-02
    -1.88819580e-02 -1.36718154e-02 -7.75197009e-03 -1.76472962e-03
    3.79089057e-03 9.46440850e-04 -1.08930990e-02 -2.96568009e-03
    -4.36076988e-03 -3.93684348e-03 1.49644716e-02 2.08149869e-02
    5.58367651e-03 3.68945883e-03 -1.17685040e-02 -1.02015026e-02
    -9.81542934e-03 -5.32641029e-03 -5.07157901e-03 -2.22540996e-03
    1.98163674e-03 1.10008093e-02 -7.43792113e-03 -4.26598825e-03
    -8.26491136e-03 -4.27242555e-03 3.57831665e-03 -1.81872712e-03
    3.07153258e-03 1.80854350e-02 1.63022559e-02 6.55711442e-03
    -4.62292554e-03 -1.57091543e-02 -1.03923259e-02 1.44702126e-05
    1.43226876e-03 1.65442508e-02 1.97872240e-02 4.07723384e-03
    3.06898775e-03 7.05522019e-03 6.38600299e-03 6.05861750e-03
    8.53158347e-03 -5.78032574e-03 -1.11220488e-02 -3.84481694e-03
    -2.93788477e-03 2.08072178e-03 -9.80525743e-04 -1.10381525e-02
    9.67512198e-04 6.41430821e-03 5.21361835e-05 1.16775779e-03
    5.36877057e-03 -6.42556604e-03 -2.13913945e-03 6.49787765e-03
    3.72177432e-03 8.50421935e-03 8.43164325e-03 -2.88746506e-03
    -6.62584463e-03 -1.12196431e-02 -1.78070795e-02 -7.27496156e-03
    2.03110725e-02 2.51378715e-02 1.70930196e-02 9.63244494e-03
    -4.58683725e-03 -1.16907274e-02 -8.62336252e-03 -1.16261552e-04
    5.46456315e-03 1.43776825e-02 -8.81062634e-03 -9.25344229e-03
    -1.42746593e-03 1.25291670e-04 5.34596969e-04 6.12783385e-03
    1.21568143e-02 4.54459898e-03 6.00978592e-03 5.45737566e-03
    6.99980045e-03 6.10786444e-03 1.70001615e-04 -7.96994753e-03
    -2.83937692e-03 -2.44149892e-03 1.73527305e-03 -5.53603517e-03
    -2.36119051e-02 -2.68924590e-02 -2.07857694e-02 -5.70088916e-04
    -7.66593381e-04 1.24815814e-02 1.61823016e-02 1.65712293e-02
    -1.98470196e-03 -2.40181177e-03 -2.09263619e-03 -2.42629508e-03
    -7.18976650e-03 -7.15359487e-03 -1.16327703e-02 3.27968178e-03
    1.21915024e-02 5.40107302e-03 1.32045557e-03 7.03374215e-04
    8.05768650e-04 -3.28968675e-03 -2.04734374e-02 -2.46770531e-02
    3.66641511e-03 1.63549446e-02 -2.20401562e-03 -4.58591152e-03
    -8.60480778e-03 -9.55103524e-03 -1.52418995e-02 -8.52517318e-03
    -2.12997969e-04 2.20599938e-02 5.31080691e-03 6.04573451e-03
    -1.23972225e-03 -3.81762744e-03 -6.10069931e-03 -1.06583526e-02
    -1.83830243e-02 -5.61588909e-03 9.73762758e-03 1.26484772e-02
    5.42229600e-03 2.82063358e-03 -2.21022332e-04 -5.71058772e-04
    -1.10085856e-03 -8.72717425e-03 -1.98176522e-02 1.83232129e-03
    7.54330633e-03 2.58357869e-03 1.86217565e-03 -3.81342950e-04
    -7.04763632e-04 1.02008693e-03 -7.27172010e-04 -4.44684364e-03
    -5.98239829e-04 1.90790347e-03 7.72013608e-03 3.41082830e-03
    -1.07487699e-03 -3.23395664e-03 -4.72145341e-03 -1.23366406e-02
    -1.55246640e-02 5.42177260e-03 8.71228520e-03 -3.70687083e-03
    1.94964523e-03 -2.34852824e-03 -1.39476906e-03 -7.39020586e-04
    -2.29012291e-03 -1.41644990e-03 1.08946429e-03 -1.95787800e-03
    1.96489552e-03 6.23834087e-03 5.17804315e-03 2.00575637e-03
    5.32729086e-04 -1.27293868e-03 1.72864195e-04 -4.50754585e-03
    3.20680323e-04 -9.57459491e-03 3.95650696e-03 1.18865706e-02
    9.48628969e-03 2.23018276e-03 4.09757765e-03 6.40155096e-03
    -5.41654555e-03 -5.46169560e-03 -6.15517842e-03 -3.38705606e-03
    -1.35780792e-04 -1.89344530e-04 -8.65930051e-04 -5.78156498e-04
    1.14517603e-02 5.86044230e-03 -6.46943052e-04 -8.71887710e-03
    -8.01945757e-03 -2.44976114e-03 5.82992099e-03 1.56594429e-03
    1.76340085e-03 3.99317965e-03 1.56907830e-03 -8.89547821e-03
    1.42370223e-03 7.65877217e-03 1.00260871e-02 3.21617443e-03
    3.80651350e-03 6.76119514e-03 4.66618454e-03 -1.67688960e-03
    -2.17165379e-03 9.48157348e-03 7.46321492e-03 -2.62550451e-03
    -1.47290425e-02 -5.61569398e-03 -5.36001427e-03 -1.68882485e-03
    6.05734484e-03 5.24389371e-03 -5.65299112e-03 -1.20372325e-03
    -2.51211203e-03 4.85202204e-03 7.37454183e-03 8.15841183e-03
    1.51239987e-03 -1.05935463e-03 -9.66128893e-03 -1.27849041e-03
    7.75711786e-04 -1.07505862e-02 -4.01505688e-03 7.44881621e-03
    -1.86328089e-03 -4.91910893e-03 3.77886835e-03 -2.28550681e-03
    3.15512647e-03 6.50832255e-04 -5.57276513e-03 -1.43049322e-02
    -5.86113334e-03 -2.99504679e-03 -8.64577480e-04 2.45684013e-03
    1.49255642e-03 -1.69854413e-03 -4.52849548e-03 -3.91115062e-03
    -2.22545466e-03 3.09575628e-03 1.04353633e-02 1.06365955e-03
    -1.17999725e-02 -7.99706951e-03 3.74923437e-03 -2.82536435e-04
    -7.42627494e-03 -6.07245415e-03 -8.05676042e-04 -5.22174733e-03
    -7.62910862e-03 3.07170092e-04 2.32813135e-03 4.44732746e-03
    3.63592058e-03 1.77163957e-03 -8.90431926e-04 -2.58325395e-04
    1.06085399e-02 1.16682015e-02 -1.15473624e-02 -6.93836575e-03
    -6.31257100e-03 -5.73338475e-03 -2.71733920e-03 -8.14329716e-04
    1.01179918e-02 5.25191566e-03 -7.52207881e-04 -1.53340539e-02
    -1.25697767e-02 -1.04510272e-02 -3.49696679e-03 -3.44566070e-03
    -1.94646756e-03 5.87013829e-03 1.79433334e-03 4.44849115e-03
    -5.99162560e-03 -1.03407567e-02 -4.63730609e-03 1.75433618e-03
    1.55649649e-03 -4.97141678e-04 6.28829142e-03 9.64017492e-03
    9.43765789e-03 -8.75345618e-03 -8.78519192e-03 -7.22842896e-03
    -1.01007952e-03 -2.80564604e-03 -2.18581990e-03 6.98110182e-03
    1.17476508e-02 1.12051526e-02 9.24099411e-04 -7.01656844e-03
    -6.73476281e-03 -2.60204845e-03 -5.09920763e-03 -1.10616023e-02
    -9.27404733e-04 -4.28445172e-03 3.58663127e-03 1.95213780e-03
    -2.90335156e-03 4.70967824e-03 8.08079634e-03 1.41195289e-03
    -8.49935692e-03 -9.10162274e-03 1.04431005e-03 9.57549177e-03
    1.25803472e-02 9.47083253e-03 -9.22850799e-04 -5.19258296e-03
    -7.57556921e-03 -9.51937959e-03 1.24982616e-03 2.15612352e-03
    7.71090155e-03 6.32185210e-03 -3.13771330e-03 -4.66523459e-03
    1.89939735e-03 6.51265774e-03 -3.99767468e-03 3.26063647e-03
    4.44222102e-03 5.95994247e-03 2.15042243e-03 -4.27590683e-03
    -2.71255500e-03 -1.10139477e-03 4.39814711e-03 3.14327795e-03
    -5.02325268e-03 4.98948526e-03 9.11000464e-03 1.00937020e-02
    3.65991239e-03 -7.93337915e-03 -8.10414553e-03 6.65232423e-04
    1.13892397e-02 1.20214559e-02 1.00616273e-02 7.30882399e-03
    4.39041434e-03 -9.63779341e-04 -2.55468693e-02 -4.85697156e-03
    1.21858073e-02 4.83678281e-03 5.03771845e-03 9.30708461e-03
    4.18451987e-03 -1.74472563e-03 -1.69808324e-02 -2.58106664e-02
    -1.76118948e-02 9.74401459e-03 1.64017696e-02 1.31179886e-02
    6.82576047e-03 4.64475341e-03 2.44325399e-03 -1.77832581e-02
    -6.76650601e-03 -1.16718444e-03 2.13007769e-03 8.43012519e-03
    1.05403857e-02 7.62942061e-03 3.11443582e-03 2.11604382e-03
    -2.02636560e-03 -8.20763502e-03 1.03232227e-02 8.07453040e-03
    2.60110432e-03 -1.18789705e-03 4.87882784e-03 1.81333825e-03
    -1.66064559e-03 -3.50327441e-03 -6.00830559e-03 -9.34638362e-03
    6.71302434e-03 1.13908816e-02 7.13065127e-03 3.55564500e-03
    1.78440369e-03 4.45069885e-03 -1.51572702e-02 -4.00443980e-03
    -5.48621407e-03 1.63389761e-02 4.57110396e-03 2.19246722e-03
    4.73095896e-03 -3.66723652e-05 1.93010550e-03 -2.03405432e-02
    -4.49829223e-03 9.65986680e-03 6.94944058e-03 4.94460925e-04
    5.08017722e-04 2.76994775e-03 -1.24034169e-03 -4.36322065e-03
    -8.32331739e-03 -1.03055881e-02 1.00158704e-02 1.38223777e-02
    6.75134407e-03 7.24524632e-03 5.48065640e-03 1.18138012e-03
    -6.85112830e-03 -1.71003155e-02 -8.63345340e-03 2.27867160e-03
    1.58111621e-02 -3.74808769e-05 3.50034237e-03 3.99515312e-03
    -4.91102837e-05 6.30881550e-05 -2.34211925e-02 -5.65400813e-03
    2.52028718e-03 1.82010829e-02 2.93199602e-03 4.77294717e-03
    5.87486243e-03 4.65794373e-03 3.76082095e-03 -1.55272204e-02
    -1.14984941e-02 1.13553591e-02 1.53078092e-02 1.13665424e-02
    7.53400335e-03 8.76240432e-03 4.47334535e-03 -3.80192301e-03
    -1.46727953e-02 -1.16789611e-02 4.03009541e-03 1.03181964e-02
    5.58876619e-03 5.84519561e-03 6.19943952e-03 7.86668900e-03
    1.36764802e-03 -1.02487877e-02 -8.85443669e-03 4.38544713e-03
    1.48985730e-02 8.33239034e-03 5.02525643e-03 7.66594894e-03
    3.19973566e-03 3.69881047e-03 -1.46328434e-02 -1.12876724e-02
    -1.96679635e-03 4.96287551e-03 5.00901323e-03 4.56657354e-03
    8.42521247e-03 6.16140524e-03 2.29411037e-03 -1.36651127e-02
    -3.60533944e-03 7.00759061e-04 3.26712523e-03 4.68627037e-03
    6.34521991e-03 5.55431377e-03 2.01624143e-03 3.23071401e-03
    -3.97104258e-03 -8.23701546e-03 -1.19150281e-02 -8.96630622e-03
    2.08487106e-03 1.02636693e-02 8.68767500e-03 3.26614990e-03
    7.03415927e-03 -4.10644803e-03 -7.47923879e-03 -4.08888329e-03
    1.94780866e-03 3.94668616e-03 4.52295830e-03 6.85974211e-03
    7.12141069e-03 3.55766830e-03 -7.62221869e-03 -2.27983738e-03
    1.61379727e-03 4.71648015e-03 -1.11146178e-03 6.81302091e-03
    7.28784036e-03 1.33848628e-02 1.24476692e-02 1.60479709e-03
    -9.65655502e-03 -1.35041010e-02 -9.56118945e-03 -8.62798654e-04
    6.25052769e-03 6.00596983e-03 4.56060981e-03 7.18805473e-03
    -5.25060482e-03 2.88640126e-03 6.24923094e-04 -2.26074900e-03
    -7.22840719e-04 1.23520300e-03 1.07885350e-03 5.55641949e-03
    6.36236090e-03 -3.30244238e-03 -1.96025590e-03 -3.21993903e-05
    6.04587886e-03 -1.94877270e-03 4.30203974e-03 2.67250347e-03
    9.65325162e-03 9.83158406e-03 7.71798543e-04 8.38250387e-04
    1.79821951e-03 7.75397057e-03 -1.15211168e-03 -4.36025701e-04
    -4.90598206e-04 2.62692478e-03 3.44440015e-03 -1.52744609e-03
    1.40772266e-02 1.26609951e-02 8.73163715e-03 5.06668678e-03
    2.51551764e-03 -9.84632352e-05 9.34403215e-04 -3.01950891e-03
    -1.87317061e-03 6.36122143e-03 3.92113160e-03 1.33725535e-02
    8.31453502e-03 4.30007605e-03 -1.83741027e-03 -4.83702822e-03
    -9.38858464e-03 -1.34033465e-03 -7.17265904e-03 -2.40073795e-03
    7.09762517e-03 3.57363466e-03 1.59448315e-03 -3.29625182e-05
    1.31408090e-03 4.90325456e-03 -1.01050665e-03 -8.73768888e-03
    -1.59674715e-02 2.01247609e-03 9.21507925e-03 4.88680368e-03
    1.30668003e-03 2.50774133e-03 9.11424961e-03 -8.59449990e-03
    3.41352052e-03 -3.57865868e-03 7.91508611e-03 6.60426402e-03
    7.22739892e-03 2.96268868e-03 3.18288594e-03 5.19463653e-03
    9.24431160e-03 -1.36385474e-03 -2.03329138e-02 -1.17430892e-02
    -2.44937977e-03 6.32655853e-03 5.99151710e-03 1.05539151e-02
    1.54558448e-02 1.97997335e-02 -9.30449180e-03 -1.73716042e-02
    2.49899179e-03 8.18608981e-03 6.64298749e-03 6.08944939e-03
    7.02265045e-03 1.62593182e-02 5.79370465e-03 -2.42525130e-03
    -2.46908981e-03 -7.32702576e-03 2.90478463e-03 6.87267212e-03
    7.86919240e-03 6.70134695e-03 1.42775644e-02 1.65755898e-02
    1.35228888e-03 -2.38862494e-03 -8.27925280e-03 -4.56022378e-03
    -4.45630820e-03 1.23046304e-03 6.27957052e-03 1.26078473e-02
    1.50600215e-03 8.66743643e-03 1.54741178e-03 -3.04438174e-03
    -2.67449464e-03 -1.67402090e-03 5.90984186e-04 2.57955934e-03
    1.14410650e-02 4.49906942e-03 -1.12344399e-02 -2.25349469e-03
    -6.01850683e-03 4.03828972e-06 6.72706962e-03 1.00124283e-02
    7.85514712e-03 -6.35276269e-03 -1.41862771e-02 -7.69144064e-03
    7.24216131e-03 1.27336290e-03 4.14428348e-03 1.06652984e-02
    9.00262780e-03 7.80296279e-03 -2.20458372e-03 -1.27520785e-02
    2.75043119e-03 3.47745814e-03 -6.30302355e-04 -1.34819490e-03
    -5.14672196e-04 -3.48604587e-03 -2.56191823e-03 6.71600597e-03
    -4.71145497e-04 -6.54806802e-03 -6.59544545e-04 -1.20765402e-03
    -4.01848287e-04 4.83680575e-04 -9.37411271e-04 8.48971680e-03
    2.45432509e-03 -4.00159787e-03 -1.27403084e-02 6.23877451e-04
    2.53315526e-03 1.43324176e-03 3.75480251e-03 2.77489354e-03
    5.24878502e-03 -7.31340842e-04 -1.14453426e-02 -1.20875724e-02
    -7.55888270e-03 -6.44370855e-04 -4.50613268e-04 7.87222059e-04
    1.03019422e-03 1.21507626e-02 1.19023677e-02 -6.47513056e-03
    -8.71993974e-03 -5.96273504e-03 -1.51681888e-03 -1.56853330e-05
    -2.07102457e-05 5.16165892e-05 9.56472754e-03 8.89153685e-03
    -8.83994624e-03 -1.08891875e-02 -5.20950370e-03 -3.18035530e-03
    1.70464278e-03 9.03201406e-04 2.81035923e-03 1.90931524e-03
    1.10706780e-02 -5.11203753e-03 -1.40328519e-02 -7.96288624e-03
    -2.02302006e-03 -1.30844198e-03 -2.26800982e-03 2.46433076e-04
    8.34827125e-03 1.29205585e-02 -7.94790499e-03 -9.51287616e-03
    -4.63553099e-03 -1.88818376e-03 2.38253328e-04 -6.15912257e-04
    3.68142081e-03 2.36988557e-03 1.24979299e-02 7.82756484e-04
    -1.10889021e-02 -3.64326872e-03 -4.28997679e-03 1.71206973e-03
    6.45962136e-04 4.40062536e-03 -1.74045016e-03 3.73781635e-03
    -7.64915207e-03 -9.48406057e-04 1.21767865e-03 -4.08653170e-03
    -2.84128822e-04 -2.36434280e-03 4.89621470e-03 -3.48090194e-03
    -2.41723214e-03 -6.23285817e-03 -3.74633493e-03 -3.18451808e-03
    -2.14697933e-03 -8.12278071e-04 -2.29891244e-04 3.60192056e-03
    -9.96607938e-04 1.50083546e-02 3.03184264e-03 2.88815540e-03
    5.08683547e-03 -3.21584428e-03 -3.07046436e-03 -2.12878198e-03
    8.18998495e-04 1.57901132e-03 5.90379816e-04 3.03184264e-03
    6.51395833e-03 3.79263982e-03 -2.58551957e-03 -3.91206471e-03
    -3.50330258e-03 -9.29134607e-04 -5.32408571e-03 -4.04703291e-03
    -2.43737246e-03 3.93593172e-03 9.13224369e-03 3.49604012e-03
    -4.53293789e-03 -3.36947665e-03 5.03906235e-03 4.66102641e-03
    -1.21361054e-02 -9.70750954e-03 9.73020564e-04 8.24127160e-03
    -1.76903838e-03 -3.89906182e-03 -1.02228345e-03 8.53670179e-04
    1.40806305e-05 -7.20835465e-04 -3.82926984e-04 1.35834399e-03
    1.40951620e-02 3.29996925e-03 -1.87333208e-04 5.81560773e-04
    3.24866804e-03 -1.21724163e-03 -7.87009299e-03 -1.42964907e-03
    -3.19405808e-03 8.12744163e-03 4.49303538e-03 1.36244972e-03
    3.00112925e-03 8.22031032e-03 8.23098328e-03 -7.48181948e-03
    -1.27146821e-02 -8.69097468e-03 4.04003821e-03 1.65279733e-03
    5.55259548e-03 9.49544646e-03 9.55939014e-03 8.31254665e-03
    5.43716014e-04 -1.29195824e-02 -5.23287198e-03 1.57277118e-02
    6.52767951e-03 8.25440604e-03 5.09181013e-03 2.79402896e-03
    1.26968953e-03 -4.89857234e-03 -1.02213556e-02 -7.05139665e-03
    9.54010524e-03 8.73632450e-03 1.51529470e-02 1.22050848e-02
    2.30395165e-03 1.81042682e-03 -1.26758555e-03 -1.27191357e-02
    -5.81391528e-03 2.95805186e-03 1.99802639e-03 2.15431699e-03
    5.41506289e-03 4.69573308e-03 7.67447520e-03 4.64049075e-03
    -9.16773453e-03 -1.63407531e-02 -7.12923298e-04 9.24092717e-03
    1.11362450e-02 7.72360759e-03 5.21752145e-03 5.58901066e-03
    4.04941430e-03 -7.52865104e-03 -3.10474052e-03 -1.64769439e-03
    4.74145683e-03 7.33540673e-03 6.54043071e-03 2.56074360e-03
    4.12346795e-03 5.15773939e-03 -3.73409875e-03 -8.40407622e-04
    -2.32356694e-02 -5.17159700e-04 5.49820438e-03 3.80038982e-03
    2.23650550e-03 2.09267088e-03 9.75069404e-03 2.91711563e-04
    -2.26963535e-02 -5.87067381e-03 9.32513922e-03 1.24784401e-02
    7.14813918e-03 5.00770845e-03 2.41380208e-03 7.48521369e-03
    -8.24595895e-03 -6.10169780e-04 -2.03442178e-03 4.61551547e-03
    6.76195463e-03 4.97887656e-03 1.90383161e-03 2.26506800e-03
    9.08136554e-03 -6.37863902e-03 3.34093580e-04 -1.60045289e-02
    -1.45591900e-03 7.37804046e-04 1.24171772e-03 9.45605920e-04
    -6.13561133e-04 7.37347500e-03 2.10806378e-03 3.75631056e-03
    -1.64062215e-03 -1.66246144e-03 -2.68200203e-03 2.93839636e-04
    -1.66749978e-03 -3.28677328e-04 3.94364679e-03 3.08470102e-04
    1.55738648e-03 1.66646333e-03 1.22744322e-03 1.04875397e-03
    9.80547047e-04 -1.96515175e-04 -2.02325566e-04 2.22150143e-03
    -1.10063646e-02 7.99642294e-05 8.18172190e-03 9.99750942e-03
    8.95671837e-04 5.35057683e-04 -1.22271258e-05 -3.37435689e-04
    -5.85654401e-04 -1.40721034e-02 2.60121771e-03 -3.91973008e-04
    -2.58445111e-03 -7.94926600e-04 -1.35421590e-03 -2.16189702e-03
    -1.89979607e-03 1.39570038e-03 -5.88419056e-03 -2.07057921e-04
    3.49858520e-03 4.26455913e-03 -5.09872152e-05 -1.03766704e-03
    3.55312950e-04 -6.39590144e-04 -1.50024239e-03 -8.37671291e-03
    -8.67906143e-04 1.15856696e-02 1.40127745e-02 5.94681245e-04
    1.44804991e-03 3.11097625e-04 -1.02970451e-04 -1.46960828e-03
    -9.73237120e-03 3.63019120e-04 8.38733464e-03 1.33636771e-02
    1.76721788e-03 2.52768118e-03 7.27095641e-04 4.41676792e-04
    2.63012014e-03 -9.47148073e-03 -5.24812238e-03 5.26172202e-03
    6.38955319e-03 1.60620606e-03 8.15720297e-04 4.74002823e-04
    -8.81913467e-04 -3.53818713e-03 -6.58842782e-03 -6.23638462e-03
    -6.91281399e-03 3.18583148e-03 1.68800249e-03 3.42251267e-03
    1.86943647e-03 6.53048453e-04 3.06178210e-03 -7.06879888e-03
    -1.90699159e-03 6.23286143e-03 1.22760078e-02 4.34079487e-03
    3.23080784e-03 3.24682286e-03 1.49445224e-03 6.87226932e-03
    -3.76398885e-03 -5.65105630e-03 1.01512484e-03 6.50556060e-03
    4.69134049e-03 2.95363134e-03 3.73661914e-03 1.84504292e-03
    4.00220277e-03 -8.34902457e-04 -7.02516921e-03 -1.07891439e-02
    4.18768357e-03 3.01988958e-03 5.55934943e-03 3.01388046e-03
    4.40397905e-03 8.56826827e-03 -2.33281706e-03 -4.57970286e-03
    -9.66915768e-03 2.69075367e-03 1.91664160e-03 3.30600236e-03
    1.95249828e-04 3.46264499e-03 -6.45403517e-04 -2.52771843e-03
    -1.67074439e-03 1.44484849e-03 3.99254356e-03 2.22150655e-03
    1.20712526e-03 1.89632608e-03 9.14503529e-04 1.42397475e-03
    2.44051742e-04 -6.17208658e-04 2.05208198e-03 1.19987801e-02
    2.27323850e-04 3.19618885e-05 -1.10002852e-03 4.58268402e-03
    4.23622271e-03 -4.75376099e-03 1.07099395e-03 -2.92474474e-03
    -3.05349543e-03 -1.05032523e-03 -1.59401237e-03 -3.41566419e-03
    -1.00480230e-03 -1.49174710e-03 2.14851275e-03 2.59236176e-03
    2.78025703e-03 -2.98393395e-04 -4.03571408e-03 -1.00798951e-02
    -1.06995888e-02 1.44366047e-03 9.75834951e-03 1.23608892e-03
    -5.02408994e-03 1.01866014e-03 1.41264321e-02 2.76790257e-03
    8.20164161e-04 -6.28677139e-04 5.90227172e-03 4.83181188e-03
    -3.10403039e-03 -7.75742484e-03 -2.19183858e-03 1.06941629e-02
    3.39328544e-03 9.31207032e-04 1.26250833e-03 2.00233818e-03
    4.37367707e-03 6.61916856e-05 3.79961770e-04 -3.95426713e-03
    2.70679547e-03 7.67269346e-04 -4.50186338e-03 -4.24306141e-03
    5.09037590e-03 8.49893410e-03 3.84525489e-03 2.37487303e-03
    2.76114582e-03 1.53982325e-03 2.19092588e-03 5.75757353e-04
    2.37226672e-03 4.08990728e-03 2.96850153e-03 4.01284453e-03
    -1.03864465e-02 -8.01085867e-03 5.63032785e-03 2.01501092e-03
    2.20317906e-03 2.16865516e-03 4.79634269e-04 7.95788504e-03
    4.24371613e-03 -4.77871206e-03 -1.38506759e-02 6.10299234e-04
    3.39515391e-03 1.76887575e-03 2.87125260e-03 2.92267697e-03
    1.13527607e-02 3.33578885e-03 5.90366311e-03 8.97433888e-03
    4.91154753e-03 -6.84749612e-05 1.57608592e-03 5.98396327e-05
    -5.46442461e-04 4.40822681e-03 4.09346214e-03 7.30401883e-03
    8.34823493e-03 2.85852375e-03 8.30218371e-04 2.19123857e-03
    2.47797184e-03 3.40064638e-03 8.45588092e-03 -1.82619249e-03
    -2.51481379e-03 -1.33997286e-02 -6.53262308e-04 1.54470152e-03
    -5.44318871e-04 9.81925987e-04 1.01794815e-03 6.22891542e-03
    -9.03279215e-05 -9.27202113e-04 2.49317568e-03 4.05966397e-03
    3.11012089e-04 -3.53031734e-04 5.56755986e-04 -1.11708161e-03
    1.48961705e-03 3.55499028e-03 7.15633156e-03 7.15155853e-04
    -2.86854047e-05 4.43504949e-04 1.91252655e-03 2.57227966e-03
    1.39383704e-03 3.48257227e-03 -7.79538648e-03 6.40740199e-03
    1.02933869e-02 1.16967848e-02 2.69451528e-03 1.22007672e-02
    7.92176276e-03 -9.78161232e-04 -2.95978249e-03 -8.78265873e-03
    2.82237947e-01</SVMDetector></hog>
</opencv_storage>
